digraph Tree {
node [shape=box] ;
0 [label="age <= 41.5\nentropy = 0.725\nsamples = 8000\nvalue = [6387, 1613]\nclass = ["] ;
1 [label="products_number <= 2.5\nentropy = 0.508\nsamples = 5442\nvalue = [4828, 614]\nclass = ["] ;
0 -> 1 [labeldistance=2.5, labelangle=45, headlabel="True"] ;
2 [label="products_number <= 1.5\nentropy = 0.466\nsamples = 5324\nvalue = [4796, 528]\nclass = ["] ;
1 -> 2 ;
3 [label="country <= 1.5\nentropy = 0.636\nsamples = 2626\nvalue = [2204, 422]\nclass = ["] ;
2 -> 3 ;
4 [label="balance <= 74197.941\nentropy = 0.542\nsamples = 1966\nvalue = [1721, 245]\nclass = ["] ;
3 -> 4 ;
5 [label="credit_score <= 409.0\nentropy = 0.761\nsamples = 517\nvalue = [403, 114]\nclass = ["] ;
4 -> 5 ;
6 [label="entropy = 0.0\nsamples = 3\nvalue = [0, 3]\nclass = 0"] ;
5 -> 6 ;
7 [label="active_member <= 0.5\nentropy = 0.753\nsamples = 514\nvalue = [403, 111]\nclass = ["] ;
5 -> 7 ;
8 [label="gender <= 0.5\nentropy = 0.845\nsamples = 253\nvalue = [184, 69]\nclass = ["] ;
7 -> 8 ;
9 [label="credit_score <= 787.0\nentropy = 0.939\nsamples = 118\nvalue = [76, 42]\nclass = ["] ;
8 -> 9 ;
10 [label="entropy = 0.959\nsamples = 110\nvalue = [68, 42]\nclass = ["] ;
9 -> 10 ;
11 [label="entropy = 0.0\nsamples = 8\nvalue = [8, 0]\nclass = ["] ;
9 -> 11 ;
12 [label="credit_score <= 745.5\nentropy = 0.722\nsamples = 135\nvalue = [108, 27]\nclass = ["] ;
8 -> 12 ;
13 [label="entropy = 0.64\nsamples = 117\nvalue = [98, 19]\nclass = ["] ;
12 -> 13 ;
14 [label="entropy = 0.991\nsamples = 18\nvalue = [10, 8]\nclass = ["] ;
12 -> 14 ;
15 [label="balance <= 73356.031\nentropy = 0.637\nsamples = 261\nvalue = [219, 42]\nclass = ["] ;
7 -> 15 ;
16 [label="credit_score <= 710.0\nentropy = 0.621\nsamples = 259\nvalue = [219, 40]\nclass = ["] ;
15 -> 16 ;
17 [label="entropy = 0.7\nsamples = 190\nvalue = [154, 36]\nclass = ["] ;
16 -> 17 ;
18 [label="entropy = 0.319\nsamples = 69\nvalue = [65, 4]\nclass = ["] ;
16 -> 18 ;
19 [label="entropy = 0.0\nsamples = 2\nvalue = [0, 2]\nclass = 0"] ;
15 -> 19 ;
20 [label="balance <= 178103.68\nentropy = 0.438\nsamples = 1449\nvalue = [1318, 131]\nclass = ["] ;
4 -> 20 ;
21 [label="age <= 39.5\nentropy = 0.404\nsamples = 1402\nvalue = [1289, 113]\nclass = ["] ;
20 -> 21 ;
22 [label="active_member <= 0.5\nentropy = 0.346\nsamples = 1219\nvalue = [1140, 79]\nclass = ["] ;
21 -> 22 ;
23 [label="balance <= 171881.125\nentropy = 0.426\nsamples = 598\nvalue = [546, 52]\nclass = ["] ;
22 -> 23 ;
24 [label="entropy = 0.403\nsamples = 586\nvalue = [539, 47]\nclass = ["] ;
23 -> 24 ;
25 [label="entropy = 0.98\nsamples = 12\nvalue = [7, 5]\nclass = ["] ;
23 -> 25 ;
26 [label="gender <= 0.5\nentropy = 0.258\nsamples = 621\nvalue = [594, 27]\nclass = ["] ;
22 -> 26 ;
27 [label="entropy = 0.36\nsamples = 263\nvalue = [245, 18]\nclass = ["] ;
26 -> 27 ;
28 [label="entropy = 0.169\nsamples = 358\nvalue = [349, 9]\nclass = ["] ;
26 -> 28 ;
29 [label="estimated_salary <= 125282.23\nentropy = 0.693\nsamples = 183\nvalue = [149, 34]\nclass = ["] ;
21 -> 29 ;
30 [label="active_member <= 0.5\nentropy = 0.463\nsamples = 102\nvalue = [92, 10]\nclass = ["] ;
29 -> 30 ;
31 [label="entropy = 0.658\nsamples = 47\nvalue = [39, 8]\nclass = ["] ;
30 -> 31 ;
32 [label="entropy = 0.225\nsamples = 55\nvalue = [53, 2]\nclass = ["] ;
30 -> 32 ;
33 [label="balance <= 105250.52\nentropy = 0.877\nsamples = 81\nvalue = [57, 24]\nclass = ["] ;
29 -> 33 ;
34 [label="entropy = 0.994\nsamples = 22\nvalue = [10, 12]\nclass = 0"] ;
33 -> 34 ;
35 [label="entropy = 0.729\nsamples = 59\nvalue = [47, 12]\nclass = ["] ;
33 -> 35 ;
36 [label="gender <= 0.5\nentropy = 0.96\nsamples = 47\nvalue = [29, 18]\nclass = ["] ;
20 -> 36 ;
37 [label="estimated_salary <= 128361.152\nentropy = 0.959\nsamples = 21\nvalue = [8, 13]\nclass = 0"] ;
36 -> 37 ;
38 [label="estimated_salary <= 67689.816\nentropy = 0.998\nsamples = 17\nvalue = [8, 9]\nclass = 0"] ;
37 -> 38 ;
39 [label="entropy = 0.764\nsamples = 9\nvalue = [2, 7]\nclass = 0"] ;
38 -> 39 ;
40 [label="entropy = 0.811\nsamples = 8\nvalue = [6, 2]\nclass = ["] ;
38 -> 40 ;
41 [label="entropy = 0.0\nsamples = 4\nvalue = [0, 4]\nclass = 0"] ;
37 -> 41 ;
42 [label="balance <= 178664.078\nentropy = 0.706\nsamples = 26\nvalue = [21, 5]\nclass = ["] ;
36 -> 42 ;
43 [label="entropy = 0.0\nsamples = 2\nvalue = [0, 2]\nclass = 0"] ;
42 -> 43 ;
44 [label="estimated_salary <= 122548.449\nentropy = 0.544\nsamples = 24\nvalue = [21, 3]\nclass = ["] ;
42 -> 44 ;
45 [label="entropy = 0.811\nsamples = 12\nvalue = [9, 3]\nclass = ["] ;
44 -> 45 ;
46 [label="entropy = 0.0\nsamples = 12\nvalue = [12, 0]\nclass = ["] ;
44 -> 46 ;
47 [label="balance <= 98022.297\nentropy = 0.839\nsamples = 660\nvalue = [483, 177]\nclass = ["] ;
3 -> 47 ;
48 [label="balance <= 66377.473\nentropy = 0.482\nsamples = 125\nvalue = [112, 13]\nclass = ["] ;
47 -> 48 ;
49 [label="entropy = 0.0\nsamples = 25\nvalue = [25, 0]\nclass = ["] ;
48 -> 49 ;
50 [label="age <= 34.5\nentropy = 0.557\nsamples = 100\nvalue = [87, 13]\nclass = ["] ;
48 -> 50 ;
51 [label="estimated_salary <= 121643.012\nentropy = 0.318\nsamples = 52\nvalue = [49, 3]\nclass = ["] ;
50 -> 51 ;
52 [label="entropy = 0.0\nsamples = 28\nvalue = [28, 0]\nclass = ["] ;
51 -> 52 ;
53 [label="balance <= 88190.965\nentropy = 0.544\nsamples = 24\nvalue = [21, 3]\nclass = ["] ;
51 -> 53 ;
54 [label="entropy = 0.845\nsamples = 11\nvalue = [8, 3]\nclass = ["] ;
53 -> 54 ;
55 [label="entropy = 0.0\nsamples = 13\nvalue = [13, 0]\nclass = ["] ;
53 -> 55 ;
56 [label="balance <= 69225.871\nentropy = 0.738\nsamples = 48\nvalue = [38, 10]\nclass = ["] ;
50 -> 56 ;
57 [label="entropy = 0.0\nsamples = 1\nvalue = [0, 1]\nclass = 0"] ;
56 -> 57 ;
58 [label="credit_score <= 518.5\nentropy = 0.705\nsamples = 47\nvalue = [38, 9]\nclass = ["] ;
56 -> 58 ;
59 [label="entropy = 0.918\nsamples = 3\nvalue = [1, 2]\nclass = 0"] ;
58 -> 59 ;
60 [label="entropy = 0.632\nsamples = 44\nvalue = [37, 7]\nclass = ["] ;
58 -> 60 ;
61 [label="balance <= 145016.984\nentropy = 0.889\nsamples = 535\nvalue = [371, 164]\nclass = ["] ;
47 -> 61 ;
62 [label="age <= 33.5\nentropy = 0.938\nsamples = 417\nvalue = [269, 148]\nclass = ["] ;
61 -> 62 ;
63 [label="active_member <= 0.5\nentropy = 0.805\nsamples = 191\nvalue = [144, 47]\nclass = ["] ;
62 -> 63 ;
64 [label="credit_score <= 842.5\nentropy = 0.915\nsamples = 94\nvalue = [63, 31]\nclass = ["] ;
63 -> 64 ;
65 [label="entropy = 0.925\nsamples = 91\nvalue = [60, 31]\nclass = ["] ;
64 -> 65 ;
66 [label="entropy = 0.0\nsamples = 3\nvalue = [3, 0]\nclass = ["] ;
64 -> 66 ;
67 [label="tenure <= 1.5\nentropy = 0.646\nsamples = 97\nvalue = [81, 16]\nclass = ["] ;
63 -> 67 ;
68 [label="entropy = 0.0\nsamples = 17\nvalue = [17, 0]\nclass = ["] ;
67 -> 68 ;
69 [label="entropy = 0.722\nsamples = 80\nvalue = [64, 16]\nclass = ["] ;
67 -> 69 ;
70 [label="estimated_salary <= 51295.439\nentropy = 0.992\nsamples = 226\nvalue = [125, 101]\nclass = ["] ;
62 -> 70 ;
71 [label="active_member <= 0.5\nentropy = 0.96\nsamples = 60\nvalue = [23, 37]\nclass = 0"] ;
70 -> 71 ;
72 [label="entropy = 0.691\nsamples = 27\nvalue = [5, 22]\nclass = 0"] ;
71 -> 72 ;
73 [label="entropy = 0.994\nsamples = 33\nvalue = [18, 15]\nclass = ["] ;
71 -> 73 ;
74 [label="credit_score <= 770.5\nentropy = 0.962\nsamples = 166\nvalue = [102, 64]\nclass = ["] ;
70 -> 74 ;
75 [label="entropy = 0.983\nsamples = 142\nvalue = [82, 60]\nclass = ["] ;
74 -> 75 ;
76 [label="entropy = 0.65\nsamples = 24\nvalue = [20, 4]\nclass = ["] ;
74 -> 76 ;
77 [label="credit_score <= 755.0\nentropy = 0.573\nsamples = 118\nvalue = [102, 16]\nclass = ["] ;
61 -> 77 ;
78 [label="balance <= 154321.742\nentropy = 0.411\nsamples = 97\nvalue = [89, 8]\nclass = ["] ;
77 -> 78 ;
79 [label="credit_card <= 0.5\nentropy = 0.619\nsamples = 52\nvalue = [44, 8]\nclass = ["] ;
78 -> 79 ;
80 [label="entropy = 0.0\nsamples = 16\nvalue = [16, 0]\nclass = ["] ;
79 -> 80 ;
81 [label="entropy = 0.764\nsamples = 36\nvalue = [28, 8]\nclass = ["] ;
79 -> 81 ;
82 [label="entropy = 0.0\nsamples = 45\nvalue = [45, 0]\nclass = ["] ;
78 -> 82 ;
83 [label="estimated_salary <= 40654.354\nentropy = 0.959\nsamples = 21\nvalue = [13, 8]\nclass = ["] ;
77 -> 83 ;
84 [label="entropy = 0.0\nsamples = 4\nvalue = [4, 0]\nclass = ["] ;
83 -> 84 ;
85 [label="credit_score <= 807.5\nentropy = 0.998\nsamples = 17\nvalue = [9, 8]\nclass = ["] ;
83 -> 85 ;
86 [label="entropy = 0.881\nsamples = 10\nvalue = [3, 7]\nclass = 0"] ;
85 -> 86 ;
87 [label="entropy = 0.592\nsamples = 7\nvalue = [6, 1]\nclass = ["] ;
85 -> 87 ;
88 [label="balance <= 1884.345\nentropy = 0.239\nsamples = 2698\nvalue = [2592, 106]\nclass = ["] ;
2 -> 88 ;
89 [label="gender <= 0.5\nentropy = 0.122\nsamples = 1558\nvalue = [1532, 26]\nclass = ["] ;
88 -> 89 ;
90 [label="tenure <= 8.5\nentropy = 0.181\nsamples = 694\nvalue = [675, 19]\nclass = ["] ;
89 -> 90 ;
91 [label="credit_score <= 584.5\nentropy = 0.206\nsamples = 586\nvalue = [567, 19]\nclass = ["] ;
90 -> 91 ;
92 [label="credit_score <= 460.5\nentropy = 0.055\nsamples = 159\nvalue = [158, 1]\nclass = ["] ;
91 -> 92 ;
93 [label="credit_score <= 458.5\nentropy = 0.323\nsamples = 17\nvalue = [16, 1]\nclass = ["] ;
92 -> 93 ;
94 [label="entropy = 0.0\nsamples = 16\nvalue = [16, 0]\nclass = ["] ;
93 -> 94 ;
95 [label="entropy = 0.0\nsamples = 1\nvalue = [0, 1]\nclass = 0"] ;
93 -> 95 ;
96 [label="entropy = 0.0\nsamples = 142\nvalue = [142, 0]\nclass = ["] ;
92 -> 96 ;
97 [label="age <= 34.5\nentropy = 0.252\nsamples = 427\nvalue = [409, 18]\nclass = ["] ;
91 -> 97 ;
98 [label="tenure <= 0.5\nentropy = 0.142\nsamples = 248\nvalue = [243, 5]\nclass = ["] ;
97 -> 98 ;
99 [label="entropy = 0.811\nsamples = 8\nvalue = [6, 2]\nclass = ["] ;
98 -> 99 ;
100 [label="entropy = 0.097\nsamples = 240\nvalue = [237, 3]\nclass = ["] ;
98 -> 100 ;
101 [label="active_member <= 0.5\nentropy = 0.376\nsamples = 179\nvalue = [166, 13]\nclass = ["] ;
97 -> 101 ;
102 [label="entropy = 0.489\nsamples = 94\nvalue = [84, 10]\nclass = ["] ;
101 -> 102 ;
103 [label="entropy = 0.22\nsamples = 85\nvalue = [82, 3]\nclass = ["] ;
101 -> 103 ;
104 [label="entropy = 0.0\nsamples = 108\nvalue = [108, 0]\nclass = ["] ;
90 -> 104 ;
105 [label="estimated_salary <= 535.495\nentropy = 0.068\nsamples = 864\nvalue = [857, 7]\nclass = ["] ;
89 -> 105 ;
106 [label="active_member <= 0.5\nentropy = 0.811\nsamples = 4\nvalue = [3, 1]\nclass = ["] ;
105 -> 106 ;
107 [label="entropy = 0.0\nsamples = 1\nvalue = [0, 1]\nclass = 0"] ;
106 -> 107 ;
108 [label="entropy = 0.0\nsamples = 3\nvalue = [3, 0]\nclass = ["] ;
106 -> 108 ;
109 [label="estimated_salary <= 83726.34\nentropy = 0.06\nsamples = 860\nvalue = [854, 6]\nclass = ["] ;
105 -> 109 ;
110 [label="entropy = 0.0\nsamples = 384\nvalue = [384, 0]\nclass = ["] ;
109 -> 110 ;
111 [label="estimated_salary <= 84076.836\nentropy = 0.098\nsamples = 476\nvalue = [470, 6]\nclass = ["] ;
109 -> 111 ;
112 [label="entropy = 0.0\nsamples = 1\nvalue = [0, 1]\nclass = 0"] ;
111 -> 112 ;
113 [label="country <= 0.5\nentropy = 0.084\nsamples = 475\nvalue = [470, 5]\nclass = ["] ;
111 -> 113 ;
114 [label="entropy = 0.112\nsamples = 335\nvalue = [330, 5]\nclass = ["] ;
113 -> 114 ;
115 [label="entropy = 0.0\nsamples = 140\nvalue = [140, 0]\nclass = ["] ;
113 -> 115 ;
116 [label="age <= 36.5\nentropy = 0.367\nsamples = 1140\nvalue = [1060, 80]\nclass = ["] ;
88 -> 116 ;
117 [label="estimated_salary <= 173034.531\nentropy = 0.301\nsamples = 785\nvalue = [743, 42]\nclass = ["] ;
116 -> 117 ;
118 [label="estimated_salary <= 172787.562\nentropy = 0.323\nsamples = 678\nvalue = [638, 40]\nclass = ["] ;
117 -> 118 ;
119 [label="estimated_salary <= 158502.656\nentropy = 0.318\nsamples = 677\nvalue = [638, 39]\nclass = ["] ;
118 -> 119 ;
120 [label="estimated_salary <= 144921.562\nentropy = 0.294\nsamples = 619\nvalue = [587, 32]\nclass = ["] ;
119 -> 120 ;
121 [label="entropy = 0.313\nsamples = 567\nvalue = [535, 32]\nclass = ["] ;
120 -> 121 ;
122 [label="entropy = 0.0\nsamples = 52\nvalue = [52, 0]\nclass = ["] ;
120 -> 122 ;
123 [label="tenure <= 4.5\nentropy = 0.531\nsamples = 58\nvalue = [51, 7]\nclass = ["] ;
119 -> 123 ;
124 [label="entropy = 0.0\nsamples = 30\nvalue = [30, 0]\nclass = ["] ;
123 -> 124 ;
125 [label="entropy = 0.811\nsamples = 28\nvalue = [21, 7]\nclass = ["] ;
123 -> 125 ;
126 [label="entropy = 0.0\nsamples = 1\nvalue = [0, 1]\nclass = 0"] ;
118 -> 126 ;
127 [label="age <= 24.5\nentropy = 0.134\nsamples = 107\nvalue = [105, 2]\nclass = ["] ;
117 -> 127 ;
128 [label="credit_score <= 628.5\nentropy = 0.619\nsamples = 13\nvalue = [11, 2]\nclass = ["] ;
127 -> 128 ;
129 [label="credit_score <= 588.0\nentropy = 0.971\nsamples = 5\nvalue = [3, 2]\nclass = ["] ;
128 -> 129 ;
130 [label="entropy = 0.0\nsamples = 2\nvalue = [2, 0]\nclass = ["] ;
129 -> 130 ;
131 [label="entropy = 0.918\nsamples = 3\nvalue = [1, 2]\nclass = 0"] ;
129 -> 131 ;
132 [label="entropy = 0.0\nsamples = 8\nvalue = [8, 0]\nclass = ["] ;
128 -> 132 ;
133 [label="entropy = 0.0\nsamples = 94\nvalue = [94, 0]\nclass = ["] ;
127 -> 133 ;
134 [label="balance <= 198212.141\nentropy = 0.491\nsamples = 355\nvalue = [317, 38]\nclass = ["] ;
116 -> 134 ;
135 [label="balance <= 157711.789\nentropy = 0.475\nsamples = 353\nvalue = [317, 36]\nclass = ["] ;
134 -> 135 ;
136 [label="active_member <= 0.5\nentropy = 0.512\nsamples = 316\nvalue = [280, 36]\nclass = ["] ;
135 -> 136 ;
137 [label="credit_score <= 754.5\nentropy = 0.634\nsamples = 150\nvalue = [126, 24]\nclass = ["] ;
136 -> 137 ;
138 [label="entropy = 0.687\nsamples = 131\nvalue = [107, 24]\nclass = ["] ;
137 -> 138 ;
139 [label="entropy = 0.0\nsamples = 19\nvalue = [19, 0]\nclass = ["] ;
137 -> 139 ;
140 [label="balance <= 129045.301\nentropy = 0.374\nsamples = 166\nvalue = [154, 12]\nclass = ["] ;
136 -> 140 ;
141 [label="entropy = 0.483\nsamples = 115\nvalue = [103, 12]\nclass = ["] ;
140 -> 141 ;
142 [label="entropy = 0.0\nsamples = 51\nvalue = [51, 0]\nclass = ["] ;
140 -> 142 ;
143 [label="entropy = 0.0\nsamples = 37\nvalue = [37, 0]\nclass = ["] ;
135 -> 143 ;
144 [label="entropy = 0.0\nsamples = 2\nvalue = [0, 2]\nclass = 0"] ;
134 -> 144 ;
145 [label="balance <= 36850.059\nentropy = 0.843\nsamples = 118\nvalue = [32, 86]\nclass = 0"] ;
1 -> 145 ;
146 [label="estimated_salary <= 167555.125\nentropy = 0.999\nsamples = 48\nvalue = [23, 25]\nclass = 0"] ;
145 -> 146 ;
147 [label="age <= 37.5\nentropy = 0.968\nsamples = 38\nvalue = [23, 15]\nclass = ["] ;
146 -> 147 ;
148 [label="tenure <= 9.5\nentropy = 0.828\nsamples = 23\nvalue = [17, 6]\nclass = ["] ;
147 -> 148 ;
149 [label="tenure <= 1.5\nentropy = 0.702\nsamples = 21\nvalue = [17, 4]\nclass = ["] ;
148 -> 149 ;
150 [label="credit_score <= 736.0\nentropy = 0.918\nsamples = 3\nvalue = [1, 2]\nclass = 0"] ;
149 -> 150 ;
151 [label="entropy = 0.0\nsamples = 2\nvalue = [0, 2]\nclass = 0"] ;
150 -> 151 ;
152 [label="entropy = 0.0\nsamples = 1\nvalue = [1, 0]\nclass = ["] ;
150 -> 152 ;
153 [label="estimated_salary <= 8984.57\nentropy = 0.503\nsamples = 18\nvalue = [16, 2]\nclass = ["] ;
149 -> 153 ;
154 [label="entropy = 0.0\nsamples = 1\nvalue = [0, 1]\nclass = 0"] ;
153 -> 154 ;
155 [label="tenure <= 8.5\nentropy = 0.323\nsamples = 17\nvalue = [16, 1]\nclass = ["] ;
153 -> 155 ;
156 [label="entropy = 0.0\nsamples = 13\nvalue = [13, 0]\nclass = ["] ;
155 -> 156 ;
157 [label="entropy = 0.811\nsamples = 4\nvalue = [3, 1]\nclass = ["] ;
155 -> 157 ;
158 [label="entropy = 0.0\nsamples = 2\nvalue = [0, 2]\nclass = 0"] ;
148 -> 158 ;
159 [label="credit_score <= 584.5\nentropy = 0.971\nsamples = 15\nvalue = [6, 9]\nclass = 0"] ;
147 -> 159 ;
160 [label="entropy = 0.0\nsamples = 2\nvalue = [2, 0]\nclass = ["] ;
159 -> 160 ;
161 [label="tenure <= 3.5\nentropy = 0.89\nsamples = 13\nvalue = [4, 9]\nclass = 0"] ;
159 -> 161 ;
162 [label="entropy = 0.0\nsamples = 5\nvalue = [0, 5]\nclass = 0"] ;
161 -> 162 ;
163 [label="tenure <= 5.5\nentropy = 1.0\nsamples = 8\nvalue = [4, 4]\nclass = ["] ;
161 -> 163 ;
164 [label="entropy = 0.0\nsamples = 3\nvalue = [3, 0]\nclass = ["] ;
163 -> 164 ;
165 [label="credit_score <= 648.5\nentropy = 0.722\nsamples = 5\nvalue = [1, 4]\nclass = 0"] ;
163 -> 165 ;
166 [label="entropy = 0.0\nsamples = 4\nvalue = [0, 4]\nclass = 0"] ;
165 -> 166 ;
167 [label="entropy = 0.0\nsamples = 1\nvalue = [1, 0]\nclass = ["] ;
165 -> 167 ;
168 [label="entropy = 0.0\nsamples = 10\nvalue = [0, 10]\nclass = 0"] ;
146 -> 168 ;
169 [label="country <= 1.5\nentropy = 0.554\nsamples = 70\nvalue = [9, 61]\nclass = 0"] ;
145 -> 169 ;
170 [label="entropy = 0.0\nsamples = 27\nvalue = [0, 27]\nclass = 0"] ;
169 -> 170 ;
171 [label="tenure <= 7.5\nentropy = 0.74\nsamples = 43\nvalue = [9, 34]\nclass = 0"] ;
169 -> 171 ;
172 [label="estimated_salary <= 188513.086\nentropy = 0.881\nsamples = 30\nvalue = [9, 21]\nclass = 0"] ;
171 -> 172 ;
173 [label="age <= 36.0\nentropy = 0.764\nsamples = 27\nvalue = [6, 21]\nclass = 0"] ;
172 -> 173 ;
174 [label="credit_score <= 585.5\nentropy = 0.961\nsamples = 13\nvalue = [5, 8]\nclass = 0"] ;
173 -> 174 ;
175 [label="entropy = 0.0\nsamples = 3\nvalue = [0, 3]\nclass = 0"] ;
174 -> 175 ;
176 [label="credit_score <= 689.5\nentropy = 1.0\nsamples = 10\nvalue = [5, 5]\nclass = ["] ;
174 -> 176 ;
177 [label="entropy = 0.722\nsamples = 5\nvalue = [4, 1]\nclass = ["] ;
176 -> 177 ;
178 [label="entropy = 0.722\nsamples = 5\nvalue = [1, 4]\nclass = 0"] ;
176 -> 178 ;
179 [label="tenure <= 6.5\nentropy = 0.371\nsamples = 14\nvalue = [1, 13]\nclass = 0"] ;
173 -> 179 ;
180 [label="entropy = 0.0\nsamples = 12\nvalue = [0, 12]\nclass = 0"] ;
179 -> 180 ;
181 [label="credit_score <= 589.0\nentropy = 1.0\nsamples = 2\nvalue = [1, 1]\nclass = ["] ;
179 -> 181 ;
182 [label="entropy = 0.0\nsamples = 1\nvalue = [0, 1]\nclass = 0"] ;
181 -> 182 ;
183 [label="entropy = 0.0\nsamples = 1\nvalue = [1, 0]\nclass = ["] ;
181 -> 183 ;
184 [label="entropy = 0.0\nsamples = 3\nvalue = [3, 0]\nclass = ["] ;
172 -> 184 ;
185 [label="entropy = 0.0\nsamples = 13\nvalue = [0, 13]\nclass = 0"] ;
171 -> 185 ;
186 [label="active_member <= 0.5\nentropy = 0.965\nsamples = 2558\nvalue = [1559, 999]\nclass = ["] ;
0 -> 186 [labeldistance=2.5, labelangle=-45, headlabel="False"] ;
187 [label="age <= 50.5\nentropy = 0.991\nsamples = 1165\nvalue = [518, 647]\nclass = 0"] ;
186 -> 187 ;
188 [label="products_number <= 1.5\nentropy = 0.989\nsamples = 833\nvalue = [467, 366]\nclass = ["] ;
187 -> 188 ;
189 [label="country <= 1.5\nentropy = 0.987\nsamples = 479\nvalue = [208, 271]\nclass = 0"] ;
188 -> 189 ;
190 [label="balance <= 81571.484\nentropy = 0.998\nsamples = 315\nvalue = [165, 150]\nclass = ["] ;
189 -> 190 ;
191 [label="credit_score <= 617.5\nentropy = 0.964\nsamples = 131\nvalue = [51, 80]\nclass = 0"] ;
190 -> 191 ;
192 [label="estimated_salary <= 171510.727\nentropy = 0.991\nsamples = 54\nvalue = [30, 24]\nclass = ["] ;
191 -> 192 ;
193 [label="credit_score <= 474.0\nentropy = 0.963\nsamples = 49\nvalue = [30, 19]\nclass = ["] ;
192 -> 193 ;
194 [label="entropy = 0.0\nsamples = 4\nvalue = [0, 4]\nclass = 0"] ;
193 -> 194 ;
195 [label="entropy = 0.918\nsamples = 45\nvalue = [30, 15]\nclass = ["] ;
193 -> 195 ;
196 [label="entropy = 0.0\nsamples = 5\nvalue = [0, 5]\nclass = 0"] ;
192 -> 196 ;
197 [label="tenure <= 5.5\nentropy = 0.845\nsamples = 77\nvalue = [21, 56]\nclass = 0"] ;
191 -> 197 ;
198 [label="estimated_salary <= 143161.82\nentropy = 0.632\nsamples = 44\nvalue = [7, 37]\nclass = 0"] ;
197 -> 198 ;
199 [label="entropy = 0.811\nsamples = 28\nvalue = [7, 21]\nclass = 0"] ;
198 -> 199 ;
200 [label="entropy = 0.0\nsamples = 16\nvalue = [0, 16]\nclass = 0"] ;
198 -> 200 ;
201 [label="age <= 47.5\nentropy = 0.983\nsamples = 33\nvalue = [14, 19]\nclass = 0"] ;
197 -> 201 ;
202 [label="entropy = 0.995\nsamples = 24\nvalue = [13, 11]\nclass = ["] ;
201 -> 202 ;
203 [label="entropy = 0.503\nsamples = 9\nvalue = [1, 8]\nclass = 0"] ;
201 -> 203 ;
204 [label="balance <= 162296.07\nentropy = 0.958\nsamples = 184\nvalue = [114, 70]\nclass = ["] ;
190 -> 204 ;
205 [label="credit_score <= 620.5\nentropy = 0.923\nsamples = 154\nvalue = [102, 52]\nclass = ["] ;
204 -> 205 ;
206 [label="country <= 0.5\nentropy = 0.999\nsamples = 60\nvalue = [31, 29]\nclass = ["] ;
205 -> 206 ;
207 [label="entropy = 0.968\nsamples = 38\nvalue = [15, 23]\nclass = 0"] ;
206 -> 207 ;
208 [label="entropy = 0.845\nsamples = 22\nvalue = [16, 6]\nclass = ["] ;
206 -> 208 ;
209 [label="balance <= 118156.355\nentropy = 0.803\nsamples = 94\nvalue = [71, 23]\nclass = ["] ;
205 -> 209 ;
210 [label="entropy = 0.946\nsamples = 44\nvalue = [28, 16]\nclass = ["] ;
209 -> 210 ;
211 [label="entropy = 0.584\nsamples = 50\nvalue = [43, 7]\nclass = ["] ;
209 -> 211 ;
212 [label="credit_score <= 634.0\nentropy = 0.971\nsamples = 30\nvalue = [12, 18]\nclass = 0"] ;
204 -> 212 ;
213 [label="balance <= 196752.398\nentropy = 0.94\nsamples = 14\nvalue = [9, 5]\nclass = ["] ;
212 -> 213 ;
214 [label="entropy = 0.811\nsamples = 12\nvalue = [9, 3]\nclass = ["] ;
213 -> 214 ;
215 [label="entropy = 0.0\nsamples = 2\nvalue = [0, 2]\nclass = 0"] ;
213 -> 215 ;
216 [label="estimated_salary <= 110458.09\nentropy = 0.696\nsamples = 16\nvalue = [3, 13]\nclass = 0"] ;
212 -> 216 ;
217 [label="entropy = 0.918\nsamples = 9\nvalue = [3, 6]\nclass = 0"] ;
216 -> 217 ;
218 [label="entropy = 0.0\nsamples = 7\nvalue = [0, 7]\nclass = 0"] ;
216 -> 218 ;
219 [label="age <= 45.5\nentropy = 0.83\nsamples = 164\nvalue = [43, 121]\nclass = 0"] ;
189 -> 219 ;
220 [label="balance <= 149119.211\nentropy = 0.956\nsamples = 85\nvalue = [32, 53]\nclass = 0"] ;
219 -> 220 ;
221 [label="balance <= 91431.281\nentropy = 0.914\nsamples = 76\nvalue = [25, 51]\nclass = 0"] ;
220 -> 221 ;
222 [label="estimated_salary <= 37139.92\nentropy = 0.722\nsamples = 5\nvalue = [4, 1]\nclass = ["] ;
221 -> 222 ;
223 [label="entropy = 0.0\nsamples = 1\nvalue = [0, 1]\nclass = 0"] ;
222 -> 223 ;
224 [label="entropy = 0.0\nsamples = 4\nvalue = [4, 0]\nclass = ["] ;
222 -> 224 ;
225 [label="estimated_salary <= 194907.352\nentropy = 0.876\nsamples = 71\nvalue = [21, 50]\nclass = 0"] ;
221 -> 225 ;
226 [label="entropy = 0.849\nsamples = 69\nvalue = [19, 50]\nclass = 0"] ;
225 -> 226 ;
227 [label="entropy = 0.0\nsamples = 2\nvalue = [2, 0]\nclass = ["] ;
225 -> 227 ;
228 [label="age <= 42.5\nentropy = 0.764\nsamples = 9\nvalue = [7, 2]\nclass = ["] ;
220 -> 228 ;
229 [label="entropy = 0.0\nsamples = 3\nvalue = [3, 0]\nclass = ["] ;
228 -> 229 ;
230 [label="balance <= 154617.211\nentropy = 0.918\nsamples = 6\nvalue = [4, 2]\nclass = ["] ;
228 -> 230 ;
231 [label="entropy = 0.0\nsamples = 3\nvalue = [3, 0]\nclass = ["] ;
230 -> 231 ;
232 [label="entropy = 0.918\nsamples = 3\nvalue = [1, 2]\nclass = 0"] ;
230 -> 232 ;
233 [label="balance <= 81494.27\nentropy = 0.582\nsamples = 79\nvalue = [11, 68]\nclass = 0"] ;
219 -> 233 ;
234 [label="credit_score <= 512.5\nentropy = 0.918\nsamples = 3\nvalue = [2, 1]\nclass = ["] ;
233 -> 234 ;
235 [label="entropy = 0.0\nsamples = 1\nvalue = [0, 1]\nclass = 0"] ;
234 -> 235 ;
236 [label="entropy = 0.0\nsamples = 2\nvalue = [2, 0]\nclass = ["] ;
234 -> 236 ;
237 [label="credit_card <= 0.5\nentropy = 0.525\nsamples = 76\nvalue = [9, 67]\nclass = 0"] ;
233 -> 237 ;
238 [label="entropy = 0.0\nsamples = 18\nvalue = [0, 18]\nclass = 0"] ;
237 -> 238 ;
239 [label="tenure <= 0.5\nentropy = 0.623\nsamples = 58\nvalue = [9, 49]\nclass = 0"] ;
237 -> 239 ;
240 [label="entropy = 0.0\nsamples = 1\nvalue = [1, 0]\nclass = ["] ;
239 -> 240 ;
241 [label="entropy = 0.585\nsamples = 57\nvalue = [8, 49]\nclass = 0"] ;
239 -> 241 ;
242 [label="products_number <= 2.5\nentropy = 0.839\nsamples = 354\nvalue = [259, 95]\nclass = ["] ;
188 -> 242 ;
243 [label="balance <= 90429.078\nentropy = 0.627\nsamples = 306\nvalue = [258, 48]\nclass = ["] ;
242 -> 243 ;
244 [label="estimated_salary <= 36398.59\nentropy = 0.415\nsamples = 179\nvalue = [164, 15]\nclass = ["] ;
243 -> 244 ;
245 [label="entropy = 0.0\nsamples = 29\nvalue = [29, 0]\nclass = ["] ;
244 -> 245 ;
246 [label="estimated_salary <= 62418.736\nentropy = 0.469\nsamples = 150\nvalue = [135, 15]\nclass = ["] ;
244 -> 246 ;
247 [label="age <= 43.5\nentropy = 0.779\nsamples = 26\nvalue = [20, 6]\nclass = ["] ;
246 -> 247 ;
248 [label="entropy = 0.0\nsamples = 10\nvalue = [10, 0]\nclass = ["] ;
247 -> 248 ;
249 [label="entropy = 0.954\nsamples = 16\nvalue = [10, 6]\nclass = ["] ;
247 -> 249 ;
250 [label="credit_score <= 450.5\nentropy = 0.375\nsamples = 124\nvalue = [115, 9]\nclass = ["] ;
246 -> 250 ;
251 [label="entropy = 0.0\nsamples = 1\nvalue = [0, 1]\nclass = 0"] ;
250 -> 251 ;
252 [label="entropy = 0.347\nsamples = 123\nvalue = [115, 8]\nclass = ["] ;
250 -> 252 ;
253 [label="age <= 44.5\nentropy = 0.827\nsamples = 127\nvalue = [94, 33]\nclass = ["] ;
243 -> 253 ;
254 [label="estimated_salary <= 154628.234\nentropy = 0.619\nsamples = 65\nvalue = [55, 10]\nclass = ["] ;
253 -> 254 ;
255 [label="credit_score <= 682.0\nentropy = 0.706\nsamples = 52\nvalue = [42, 10]\nclass = ["] ;
254 -> 255 ;
256 [label="entropy = 0.863\nsamples = 28\nvalue = [20, 8]\nclass = ["] ;
255 -> 256 ;
257 [label="entropy = 0.414\nsamples = 24\nvalue = [22, 2]\nclass = ["] ;
255 -> 257 ;
258 [label="entropy = 0.0\nsamples = 13\nvalue = [13, 0]\nclass = ["] ;
254 -> 258 ;
259 [label="credit_score <= 776.5\nentropy = 0.951\nsamples = 62\nvalue = [39, 23]\nclass = ["] ;
253 -> 259 ;
260 [label="balance <= 155085.203\nentropy = 0.981\nsamples = 55\nvalue = [32, 23]\nclass = ["] ;
259 -> 260 ;
261 [label="entropy = 0.932\nsamples = 46\nvalue = [30, 16]\nclass = ["] ;
260 -> 261 ;
262 [label="entropy = 0.764\nsamples = 9\nvalue = [2, 7]\nclass = 0"] ;
260 -> 262 ;
263 [label="entropy = 0.0\nsamples = 7\nvalue = [7, 0]\nclass = ["] ;
259 -> 263 ;
264 [label="credit_score <= 760.5\nentropy = 0.146\nsamples = 48\nvalue = [1, 47]\nclass = 0"] ;
242 -> 264 ;
265 [label="entropy = 0.0\nsamples = 43\nvalue = [0, 43]\nclass = 0"] ;
264 -> 265 ;
266 [label="age <= 43.0\nentropy = 0.722\nsamples = 5\nvalue = [1, 4]\nclass = 0"] ;
264 -> 266 ;
267 [label="entropy = 0.0\nsamples = 1\nvalue = [1, 0]\nclass = ["] ;
266 -> 267 ;
268 [label="entropy = 0.0\nsamples = 4\nvalue = [0, 4]\nclass = 0"] ;
266 -> 268 ;
269 [label="age <= 73.5\nentropy = 0.619\nsamples = 332\nvalue = [51, 281]\nclass = 0"] ;
187 -> 269 ;
270 [label="products_number <= 2.5\nentropy = 0.593\nsamples = 328\nvalue = [47, 281]\nclass = 0"] ;
269 -> 270 ;
271 [label="products_number <= 1.5\nentropy = 0.63\nsamples = 297\nvalue = [47, 250]\nclass = 0"] ;
270 -> 271 ;
272 [label="balance <= 141792.656\nentropy = 0.52\nsamples = 231\nvalue = [27, 204]\nclass = 0"] ;
271 -> 272 ;
273 [label="tenure <= 3.5\nentropy = 0.582\nsamples = 194\nvalue = [27, 167]\nclass = 0"] ;
272 -> 273 ;
274 [label="estimated_salary <= 2678.265\nentropy = 0.319\nsamples = 69\nvalue = [4, 65]\nclass = 0"] ;
273 -> 274 ;
275 [label="entropy = 0.0\nsamples = 1\nvalue = [1, 0]\nclass = ["] ;
274 -> 275 ;
276 [label="entropy = 0.261\nsamples = 68\nvalue = [3, 65]\nclass = 0"] ;
274 -> 276 ;
277 [label="balance <= 99269.703\nentropy = 0.689\nsamples = 125\nvalue = [23, 102]\nclass = 0"] ;
273 -> 277 ;
278 [label="entropy = 0.451\nsamples = 53\nvalue = [5, 48]\nclass = 0"] ;
277 -> 278 ;
279 [label="entropy = 0.811\nsamples = 72\nvalue = [18, 54]\nclass = 0"] ;
277 -> 279 ;
280 [label="entropy = 0.0\nsamples = 37\nvalue = [0, 37]\nclass = 0"] ;
272 -> 280 ;
281 [label="credit_score <= 672.5\nentropy = 0.885\nsamples = 66\nvalue = [20, 46]\nclass = 0"] ;
271 -> 281 ;
282 [label="balance <= 127181.605\nentropy = 0.702\nsamples = 42\nvalue = [8, 34]\nclass = 0"] ;
281 -> 282 ;
283 [label="credit_score <= 581.5\nentropy = 0.824\nsamples = 31\nvalue = [8, 23]\nclass = 0"] ;
282 -> 283 ;
284 [label="entropy = 0.964\nsamples = 18\nvalue = [7, 11]\nclass = 0"] ;
283 -> 284 ;
285 [label="entropy = 0.391\nsamples = 13\nvalue = [1, 12]\nclass = 0"] ;
283 -> 285 ;
286 [label="entropy = 0.0\nsamples = 11\nvalue = [0, 11]\nclass = 0"] ;
282 -> 286 ;
287 [label="credit_score <= 714.5\nentropy = 1.0\nsamples = 24\nvalue = [12, 12]\nclass = ["] ;
281 -> 287 ;
288 [label="tenure <= 4.5\nentropy = 0.722\nsamples = 10\nvalue = [8, 2]\nclass = ["] ;
287 -> 288 ;
289 [label="entropy = 0.971\nsamples = 5\nvalue = [3, 2]\nclass = ["] ;
288 -> 289 ;
290 [label="entropy = 0.0\nsamples = 5\nvalue = [5, 0]\nclass = ["] ;
288 -> 290 ;
291 [label="credit_card <= 0.5\nentropy = 0.863\nsamples = 14\nvalue = [4, 10]\nclass = 0"] ;
287 -> 291 ;
292 [label="entropy = 0.0\nsamples = 5\nvalue = [0, 5]\nclass = 0"] ;
291 -> 292 ;
293 [label="entropy = 0.991\nsamples = 9\nvalue = [4, 5]\nclass = 0"] ;
291 -> 293 ;
294 [label="entropy = 0.0\nsamples = 31\nvalue = [0, 31]\nclass = 0"] ;
270 -> 294 ;
295 [label="entropy = 0.0\nsamples = 4\nvalue = [4, 0]\nclass = ["] ;
269 -> 295 ;
296 [label="products_number <= 2.5\nentropy = 0.816\nsamples = 1393\nvalue = [1041, 352]\nclass = ["] ;
186 -> 296 ;
297 [label="products_number <= 1.5\nentropy = 0.772\nsamples = 1337\nvalue = [1034, 303]\nclass = ["] ;
296 -> 297 ;
298 [label="country <= 1.5\nentropy = 0.91\nsamples = 728\nvalue = [491, 237]\nclass = ["] ;
297 -> 298 ;
299 [label="balance <= 67335.82\nentropy = 0.824\nsamples = 530\nvalue = [393, 137]\nclass = ["] ;
298 -> 299 ;
300 [label="age <= 65.5\nentropy = 0.993\nsamples = 158\nvalue = [87, 71]\nclass = ["] ;
299 -> 300 ;
301 [label="credit_card <= 0.5\nentropy = 1.0\nsamples = 138\nvalue = [68, 70]\nclass = 0"] ;
300 -> 301 ;
302 [label="estimated_salary <= 169215.93\nentropy = 0.894\nsamples = 45\nvalue = [14, 31]\nclass = 0"] ;
301 -> 302 ;
303 [label="entropy = 0.971\nsamples = 35\nvalue = [14, 21]\nclass = 0"] ;
302 -> 303 ;
304 [label="entropy = 0.0\nsamples = 10\nvalue = [0, 10]\nclass = 0"] ;
302 -> 304 ;
305 [label="credit_score <= 425.5\nentropy = 0.981\nsamples = 93\nvalue = [54, 39]\nclass = ["] ;
301 -> 305 ;
306 [label="entropy = 0.0\nsamples = 2\nvalue = [0, 2]\nclass = 0"] ;
305 -> 306 ;
307 [label="entropy = 0.975\nsamples = 91\nvalue = [54, 37]\nclass = ["] ;
305 -> 307 ;
308 [label="estimated_salary <= 186913.836\nentropy = 0.286\nsamples = 20\nvalue = [19, 1]\nclass = ["] ;
300 -> 308 ;
309 [label="entropy = 0.0\nsamples = 19\nvalue = [19, 0]\nclass = ["] ;
308 -> 309 ;
310 [label="entropy = 0.0\nsamples = 1\nvalue = [0, 1]\nclass = 0"] ;
308 -> 310 ;
311 [label="age <= 57.5\nentropy = 0.674\nsamples = 372\nvalue = [306, 66]\nclass = ["] ;
299 -> 311 ;
312 [label="age <= 49.5\nentropy = 0.767\nsamples = 255\nvalue = [198, 57]\nclass = ["] ;
311 -> 312 ;
313 [label="balance <= 159173.008\nentropy = 0.626\nsamples = 166\nvalue = [140, 26]\nclass = ["] ;
312 -> 313 ;
314 [label="entropy = 0.676\nsamples = 146\nvalue = [120, 26]\nclass = ["] ;
313 -> 314 ;
315 [label="entropy = 0.0\nsamples = 20\nvalue = [20, 0]\nclass = ["] ;
313 -> 315 ;
316 [label="balance <= 104533.281\nentropy = 0.933\nsamples = 89\nvalue = [58, 31]\nclass = ["] ;
312 -> 316 ;
317 [label="entropy = 0.746\nsamples = 33\nvalue = [26, 7]\nclass = ["] ;
316 -> 317 ;
318 [label="entropy = 0.985\nsamples = 56\nvalue = [32, 24]\nclass = ["] ;
316 -> 318 ;
319 [label="balance <= 107870.285\nentropy = 0.391\nsamples = 117\nvalue = [108, 9]\nclass = ["] ;
311 -> 319 ;
320 [label="entropy = 0.0\nsamples = 33\nvalue = [33, 0]\nclass = ["] ;
319 -> 320 ;
321 [label="credit_score <= 735.0\nentropy = 0.491\nsamples = 84\nvalue = [75, 9]\nclass = ["] ;
319 -> 321 ;
322 [label="entropy = 0.586\nsamples = 64\nvalue = [55, 9]\nclass = ["] ;
321 -> 322 ;
323 [label="entropy = 0.0\nsamples = 20\nvalue = [20, 0]\nclass = ["] ;
321 -> 323 ;
324 [label="balance <= 88564.359\nentropy = 1.0\nsamples = 198\nvalue = [98, 100]\nclass = 0"] ;
298 -> 324 ;
325 [label="entropy = 0.0\nsamples = 14\nvalue = [14, 0]\nclass = ["] ;
324 -> 325 ;
326 [label="age <= 70.5\nentropy = 0.995\nsamples = 184\nvalue = [84, 100]\nclass = 0"] ;
324 -> 326 ;
327 [label="balance <= 137114.742\nentropy = 0.985\nsamples = 175\nvalue = [75, 100]\nclass = 0"] ;
326 -> 327 ;
328 [label="credit_score <= 728.5\nentropy = 0.921\nsamples = 128\nvalue = [43, 85]\nclass = 0"] ;
327 -> 328 ;
329 [label="entropy = 0.97\nsamples = 98\nvalue = [39, 59]\nclass = 0"] ;
328 -> 329 ;
330 [label="entropy = 0.567\nsamples = 30\nvalue = [4, 26]\nclass = 0"] ;
328 -> 330 ;
331 [label="balance <= 142630.836\nentropy = 0.903\nsamples = 47\nvalue = [32, 15]\nclass = ["] ;
327 -> 331 ;
332 [label="entropy = 0.0\nsamples = 10\nvalue = [10, 0]\nclass = ["] ;
331 -> 332 ;
333 [label="entropy = 0.974\nsamples = 37\nvalue = [22, 15]\nclass = ["] ;
331 -> 333 ;
334 [label="entropy = 0.0\nsamples = 9\nvalue = [9, 0]\nclass = ["] ;
326 -> 334 ;
335 [label="balance <= 37268.899\nentropy = 0.495\nsamples = 609\nvalue = [543, 66]\nclass = ["] ;
297 -> 335 ;
336 [label="age <= 47.5\nentropy = 0.246\nsamples = 343\nvalue = [329, 14]\nclass = ["] ;
335 -> 336 ;
337 [label="estimated_salary <= 3359.21\nentropy = 0.109\nsamples = 138\nvalue = [136, 2]\nclass = ["] ;
336 -> 337 ;
338 [label="entropy = 0.0\nsamples = 1\nvalue = [0, 1]\nclass = 0"] ;
337 -> 338 ;
339 [label="credit_score <= 789.5\nentropy = 0.062\nsamples = 137\nvalue = [136, 1]\nclass = ["] ;
337 -> 339 ;
340 [label="entropy = 0.0\nsamples = 124\nvalue = [124, 0]\nclass = ["] ;
339 -> 340 ;
341 [label="credit_score <= 796.0\nentropy = 0.391\nsamples = 13\nvalue = [12, 1]\nclass = ["] ;
339 -> 341 ;
342 [label="entropy = 0.0\nsamples = 1\nvalue = [0, 1]\nclass = 0"] ;
341 -> 342 ;
343 [label="entropy = 0.0\nsamples = 12\nvalue = [12, 0]\nclass = ["] ;
341 -> 343 ;
344 [label="age <= 59.5\nentropy = 0.322\nsamples = 205\nvalue = [193, 12]\nclass = ["] ;
336 -> 344 ;
345 [label="credit_score <= 650.0\nentropy = 0.478\nsamples = 107\nvalue = [96, 11]\nclass = ["] ;
344 -> 345 ;
346 [label="credit_score <= 646.5\nentropy = 0.706\nsamples = 52\nvalue = [42, 10]\nclass = ["] ;
345 -> 346 ;
347 [label="entropy = 0.672\nsamples = 51\nvalue = [42, 9]\nclass = ["] ;
346 -> 347 ;
348 [label="entropy = 0.0\nsamples = 1\nvalue = [0, 1]\nclass = 0"] ;
346 -> 348 ;
349 [label="age <= 58.5\nentropy = 0.131\nsamples = 55\nvalue = [54, 1]\nclass = ["] ;
345 -> 349 ;
350 [label="entropy = 0.0\nsamples = 51\nvalue = [51, 0]\nclass = ["] ;
349 -> 350 ;
351 [label="entropy = 0.811\nsamples = 4\nvalue = [3, 1]\nclass = ["] ;
349 -> 351 ;
352 [label="credit_score <= 777.0\nentropy = 0.082\nsamples = 98\nvalue = [97, 1]\nclass = ["] ;
344 -> 352 ;
353 [label="entropy = 0.0\nsamples = 83\nvalue = [83, 0]\nclass = ["] ;
352 -> 353 ;
354 [label="credit_score <= 783.0\nentropy = 0.353\nsamples = 15\nvalue = [14, 1]\nclass = ["] ;
352 -> 354 ;
355 [label="entropy = 0.0\nsamples = 1\nvalue = [0, 1]\nclass = 0"] ;
354 -> 355 ;
356 [label="entropy = 0.0\nsamples = 14\nvalue = [14, 0]\nclass = ["] ;
354 -> 356 ;
357 [label="estimated_salary <= 187722.438\nentropy = 0.713\nsamples = 266\nvalue = [214, 52]\nclass = ["] ;
335 -> 357 ;
358 [label="gender <= 0.5\nentropy = 0.739\nsamples = 249\nvalue = [197, 52]\nclass = ["] ;
357 -> 358 ;
359 [label="estimated_salary <= 155932.531\nentropy = 0.861\nsamples = 109\nvalue = [78, 31]\nclass = ["] ;
358 -> 359 ;
360 [label="balance <= 56217.139\nentropy = 0.771\nsamples = 93\nvalue = [72, 21]\nclass = ["] ;
359 -> 360 ;
361 [label="entropy = 0.0\nsamples = 2\nvalue = [0, 2]\nclass = 0"] ;
360 -> 361 ;
362 [label="entropy = 0.739\nsamples = 91\nvalue = [72, 19]\nclass = ["] ;
360 -> 362 ;
363 [label="credit_score <= 624.5\nentropy = 0.954\nsamples = 16\nvalue = [6, 10]\nclass = 0"] ;
359 -> 363 ;
364 [label="entropy = 0.0\nsamples = 5\nvalue = [0, 5]\nclass = 0"] ;
363 -> 364 ;
365 [label="entropy = 0.994\nsamples = 11\nvalue = [6, 5]\nclass = ["] ;
363 -> 365 ;
366 [label="tenure <= 7.5\nentropy = 0.61\nsamples = 140\nvalue = [119, 21]\nclass = ["] ;
358 -> 366 ;
367 [label="age <= 67.5\nentropy = 0.726\nsamples = 99\nvalue = [79, 20]\nclass = ["] ;
366 -> 367 ;
368 [label="entropy = 0.782\nsamples = 86\nvalue = [66, 20]\nclass = ["] ;
367 -> 368 ;
369 [label="entropy = 0.0\nsamples = 13\nvalue = [13, 0]\nclass = ["] ;
367 -> 369 ;
370 [label="estimated_salary <= 65381.648\nentropy = 0.165\nsamples = 41\nvalue = [40, 1]\nclass = ["] ;
366 -> 370 ;
371 [label="entropy = 0.592\nsamples = 7\nvalue = [6, 1]\nclass = ["] ;
370 -> 371 ;
372 [label="entropy = 0.0\nsamples = 34\nvalue = [34, 0]\nclass = ["] ;
370 -> 372 ;
373 [label="entropy = 0.0\nsamples = 17\nvalue = [17, 0]\nclass = ["] ;
357 -> 373 ;
374 [label="balance <= 57003.365\nentropy = 0.544\nsamples = 56\nvalue = [7, 49]\nclass = 0"] ;
296 -> 374 ;
375 [label="age <= 65.5\nentropy = 0.871\nsamples = 24\nvalue = [7, 17]\nclass = 0"] ;
374 -> 375 ;
376 [label="age <= 42.5\nentropy = 0.629\nsamples = 19\nvalue = [3, 16]\nclass = 0"] ;
375 -> 376 ;
377 [label="estimated_salary <= 154668.664\nentropy = 0.918\nsamples = 3\nvalue = [2, 1]\nclass = ["] ;
376 -> 377 ;
378 [label="entropy = 0.0\nsamples = 2\nvalue = [2, 0]\nclass = ["] ;
377 -> 378 ;
379 [label="entropy = 0.0\nsamples = 1\nvalue = [0, 1]\nclass = 0"] ;
377 -> 379 ;
380 [label="credit_score <= 572.0\nentropy = 0.337\nsamples = 16\nvalue = [1, 15]\nclass = 0"] ;
376 -> 380 ;
381 [label="credit_score <= 524.5\nentropy = 0.918\nsamples = 3\nvalue = [1, 2]\nclass = 0"] ;
380 -> 381 ;
382 [label="entropy = 0.0\nsamples = 2\nvalue = [0, 2]\nclass = 0"] ;
381 -> 382 ;
383 [label="entropy = 0.0\nsamples = 1\nvalue = [1, 0]\nclass = ["] ;
381 -> 383 ;
384 [label="entropy = 0.0\nsamples = 13\nvalue = [0, 13]\nclass = 0"] ;
380 -> 384 ;
385 [label="estimated_salary <= 134717.871\nentropy = 0.722\nsamples = 5\nvalue = [4, 1]\nclass = ["] ;
375 -> 385 ;
386 [label="entropy = 0.0\nsamples = 4\nvalue = [4, 0]\nclass = ["] ;
385 -> 386 ;
387 [label="entropy = 0.0\nsamples = 1\nvalue = [0, 1]\nclass = 0"] ;
385 -> 387 ;
388 [label="entropy = 0.0\nsamples = 32\nvalue = [0, 32]\nclass = 0"] ;
374 -> 388 ;
}