digraph Tree {
node [shape=box] ;
0 [label="tenure <= 0.294\ngini = 0.325\nsamples = 8000\nvalue = [6368, 1632]\nclass = ["] ;
1 [label="balance <= 2.432\ngini = 0.202\nsamples = 5585\nvalue = [4950, 635]\nclass = ["] ;
0 -> 1 [labeldistance=2.5, labelangle=45, headlabel="True"] ;
2 [label="balance <= -0.072\ngini = 0.179\nsamples = 5464\nvalue = [4922, 542]\nclass = ["] ;
1 -> 2 ;
3 [label="balance <= -0.969\ngini = 0.266\nsamples = 2634\nvalue = [2218, 416]\nclass = ["] ;
2 -> 3 ;
4 [label="balance <= -0.978\ngini = 0.174\nsamples = 1109\nvalue = [1002, 107]\nclass = ["] ;
3 -> 4 ;
5 [label="tenure <= -1.852\ngini = 0.155\nsamples = 805\nvalue = [737, 68]\nclass = ["] ;
4 -> 5 ;
6 [label="gini = 0.0\nsamples = 15\nvalue = [15, 0]\nclass = ["] ;
5 -> 6 ;
7 [label="balance <= -1.011\ngini = 0.157\nsamples = 790\nvalue = [722, 68]\nclass = ["] ;
5 -> 7 ;
8 [label="tenure <= -1.661\ngini = 0.225\nsamples = 31\nvalue = [27, 4]\nclass = ["] ;
7 -> 8 ;
9 [label="tenure <= -1.757\ngini = 0.124\nsamples = 15\nvalue = [14, 1]\nclass = ["] ;
8 -> 9 ;
10 [label="gini = 0.198\nsamples = 9\nvalue = [8, 1]\nclass = ["] ;
9 -> 10 ;
11 [label="gini = 0.0\nsamples = 6\nvalue = [6, 0]\nclass = ["] ;
9 -> 11 ;
12 [label="gini = 0.305\nsamples = 16\nvalue = [13, 3]\nclass = ["] ;
8 -> 12 ;
13 [label="balance <= -1.0\ngini = 0.154\nsamples = 759\nvalue = [695, 64]\nclass = ["] ;
7 -> 13 ;
14 [label="balance <= -1.005\ngini = 0.116\nsamples = 130\nvalue = [122, 8]\nclass = ["] ;
13 -> 14 ;
15 [label="gini = 0.142\nsamples = 52\nvalue = [48, 4]\nclass = ["] ;
14 -> 15 ;
16 [label="gini = 0.097\nsamples = 78\nvalue = [74, 4]\nclass = ["] ;
14 -> 16 ;
17 [label="balance <= -0.997\ngini = 0.162\nsamples = 629\nvalue = [573, 56]\nclass = ["] ;
13 -> 17 ;
18 [label="gini = 0.245\nsamples = 42\nvalue = [36, 6]\nclass = ["] ;
17 -> 18 ;
19 [label="gini = 0.156\nsamples = 587\nvalue = [537, 50]\nclass = ["] ;
17 -> 19 ;
20 [label="balance <= -0.972\ngini = 0.224\nsamples = 304\nvalue = [265, 39]\nclass = ["] ;
4 -> 20 ;
21 [label="balance <= -0.975\ngini = 0.218\nsamples = 193\nvalue = [169, 24]\nclass = ["] ;
20 -> 21 ;
22 [label="gini = 0.229\nsamples = 106\nvalue = [92, 14]\nclass = ["] ;
21 -> 22 ;
23 [label="gini = 0.203\nsamples = 87\nvalue = [77, 10]\nclass = ["] ;
21 -> 23 ;
24 [label="gini = 0.234\nsamples = 111\nvalue = [96, 15]\nclass = ["] ;
20 -> 24 ;
25 [label="balance <= -0.856\ngini = 0.323\nsamples = 1525\nvalue = [1216, 309]\nclass = ["] ;
3 -> 25 ;
26 [label="tenure <= 0.055\ngini = 0.285\nsamples = 906\nvalue = [750, 156]\nclass = ["] ;
25 -> 26 ;
27 [label="tenure <= -0.994\ngini = 0.269\nsamples = 726\nvalue = [610, 116]\nclass = ["] ;
26 -> 27 ;
28 [label="tenure <= -1.566\ngini = 0.227\nsamples = 214\nvalue = [186, 28]\nclass = ["] ;
27 -> 28 ;
29 [label="balance <= -0.898\ngini = 0.273\nsamples = 43\nvalue = [36, 7]\nclass = ["] ;
28 -> 29 ;
30 [label="gini = 0.0\nsamples = 2\nvalue = [2, 0]\nclass = ["] ;
29 -> 30 ;
31 [label="gini = 0.283\nsamples = 41\nvalue = [34, 7]\nclass = ["] ;
29 -> 31 ;
32 [label="tenure <= -1.47\ngini = 0.215\nsamples = 171\nvalue = [150, 21]\nclass = ["] ;
28 -> 32 ;
33 [label="gini = 0.111\nsamples = 17\nvalue = [16, 1]\nclass = ["] ;
32 -> 33 ;
34 [label="gini = 0.226\nsamples = 154\nvalue = [134, 20]\nclass = ["] ;
32 -> 34 ;
35 [label="tenure <= -0.898\ngini = 0.285\nsamples = 512\nvalue = [424, 88]\nclass = ["] ;
27 -> 35 ;
36 [label="gini = 0.332\nsamples = 57\nvalue = [45, 12]\nclass = ["] ;
35 -> 36 ;
37 [label="balance <= -0.859\ngini = 0.278\nsamples = 455\nvalue = [379, 76]\nclass = ["] ;
35 -> 37 ;
38 [label="gini = 0.285\nsamples = 383\nvalue = [317, 66]\nclass = ["] ;
37 -> 38 ;
39 [label="gini = 0.239\nsamples = 72\nvalue = [62, 10]\nclass = ["] ;
37 -> 39 ;
40 [label="tenure <= 0.151\ngini = 0.346\nsamples = 180\nvalue = [140, 40]\nclass = ["] ;
26 -> 40 ;
41 [label="gini = 0.33\nsamples = 96\nvalue = [76, 20]\nclass = ["] ;
40 -> 41 ;
42 [label="gini = 0.363\nsamples = 84\nvalue = [64, 20]\nclass = ["] ;
40 -> 42 ;
43 [label="tenure <= -0.04\ngini = 0.372\nsamples = 619\nvalue = [466, 153]\nclass = ["] ;
25 -> 43 ;
44 [label="tenure <= -0.135\ngini = 0.345\nsamples = 365\nvalue = [284, 81]\nclass = ["] ;
43 -> 44 ;
45 [label="balance <= -0.848\ngini = 0.352\nsamples = 289\nvalue = [223, 66]\nclass = ["] ;
44 -> 45 ;
46 [label="tenure <= -0.326\ngini = 0.344\nsamples = 222\nvalue = [173, 49]\nclass = ["] ;
45 -> 46 ;
47 [label="gini = 0.355\nsamples = 143\nvalue = [110, 33]\nclass = ["] ;
46 -> 47 ;
48 [label="gini = 0.323\nsamples = 79\nvalue = [63, 16]\nclass = ["] ;
46 -> 48 ;
49 [label="gini = 0.379\nsamples = 67\nvalue = [50, 17]\nclass = ["] ;
45 -> 49 ;
50 [label="gini = 0.317\nsamples = 76\nvalue = [61, 15]\nclass = ["] ;
44 -> 50 ;
51 [label="tenure <= 0.151\ngini = 0.406\nsamples = 254\nvalue = [182, 72]\nclass = ["] ;
43 -> 51 ;
52 [label="tenure <= 0.055\ngini = 0.42\nsamples = 183\nvalue = [128, 55]\nclass = ["] ;
51 -> 52 ;
53 [label="gini = 0.408\nsamples = 91\nvalue = [65, 26]\nclass = ["] ;
52 -> 53 ;
54 [label="gini = 0.432\nsamples = 92\nvalue = [63, 29]\nclass = ["] ;
52 -> 54 ;
55 [label="gini = 0.364\nsamples = 71\nvalue = [54, 17]\nclass = ["] ;
51 -> 55 ;
56 [label="balance <= 0.861\ngini = 0.085\nsamples = 2830\nvalue = [2704, 126]\nclass = ["] ;
2 -> 56 ;
57 [label="balance <= 0.742\ngini = 0.06\nsamples = 2249\nvalue = [2179, 70]\nclass = ["] ;
56 -> 57 ;
58 [label="tenure <= -0.422\ngini = 0.04\nsamples = 1033\nvalue = [1012, 21]\nclass = ["] ;
57 -> 58 ;
59 [label="tenure <= -0.517\ngini = 0.046\nsamples = 813\nvalue = [794, 19]\nclass = ["] ;
58 -> 59 ;
60 [label="tenure <= -1.566\ngini = 0.042\nsamples = 707\nvalue = [692, 15]\nclass = ["] ;
59 -> 60 ;
61 [label="tenure <= -1.757\ngini = 0.078\nsamples = 49\nvalue = [47, 2]\nclass = ["] ;
60 -> 61 ;
62 [label="gini = 0.0\nsamples = 25\nvalue = [25, 0]\nclass = ["] ;
61 -> 62 ;
63 [label="gini = 0.153\nsamples = 24\nvalue = [22, 2]\nclass = ["] ;
61 -> 63 ;
64 [label="balance <= 0.709\ngini = 0.039\nsamples = 658\nvalue = [645, 13]\nclass = ["] ;
60 -> 64 ;
65 [label="gini = 0.0\nsamples = 49\nvalue = [49, 0]\nclass = ["] ;
64 -> 65 ;
66 [label="gini = 0.042\nsamples = 609\nvalue = [596, 13]\nclass = ["] ;
64 -> 66 ;
67 [label="gini = 0.073\nsamples = 106\nvalue = [102, 4]\nclass = ["] ;
59 -> 67 ;
68 [label="balance <= 0.74\ngini = 0.018\nsamples = 220\nvalue = [218, 2]\nclass = ["] ;
58 -> 68 ;
69 [label="gini = 0.0\nsamples = 100\nvalue = [100, 0]\nclass = ["] ;
68 -> 69 ;
70 [label="gini = 0.033\nsamples = 120\nvalue = [118, 2]\nclass = ["] ;
68 -> 70 ;
71 [label="balance <= 0.745\ngini = 0.077\nsamples = 1216\nvalue = [1167, 49]\nclass = ["] ;
57 -> 71 ;
72 [label="gini = 0.143\nsamples = 116\nvalue = [107, 9]\nclass = ["] ;
71 -> 72 ;
73 [label="balance <= 0.858\ngini = 0.07\nsamples = 1100\nvalue = [1060, 40]\nclass = ["] ;
71 -> 73 ;
74 [label="balance <= 0.853\ngini = 0.075\nsamples = 1031\nvalue = [991, 40]\nclass = ["] ;
73 -> 74 ;
75 [label="balance <= 0.844\ngini = 0.069\nsamples = 869\nvalue = [838, 31]\nclass = ["] ;
74 -> 75 ;
76 [label="gini = 0.083\nsamples = 670\nvalue = [641, 29]\nclass = ["] ;
75 -> 76 ;
77 [label="gini = 0.02\nsamples = 199\nvalue = [197, 2]\nclass = ["] ;
75 -> 77 ;
78 [label="tenure <= -0.612\ngini = 0.105\nsamples = 162\nvalue = [153, 9]\nclass = ["] ;
74 -> 78 ;
79 [label="gini = 0.12\nsamples = 78\nvalue = [73, 5]\nclass = ["] ;
78 -> 79 ;
80 [label="gini = 0.091\nsamples = 84\nvalue = [80, 4]\nclass = ["] ;
78 -> 80 ;
81 [label="gini = 0.0\nsamples = 69\nvalue = [69, 0]\nclass = ["] ;
73 -> 81 ;
82 [label="tenure <= -0.231\ngini = 0.174\nsamples = 581\nvalue = [525, 56]\nclass = ["] ;
56 -> 82 ;
83 [label="tenure <= -0.756\ngini = 0.15\nsamples = 159\nvalue = [146, 13]\nclass = ["] ;
82 -> 83 ;
84 [label="gini = 0.0\nsamples = 3\nvalue = [3, 0]\nclass = ["] ;
83 -> 84 ;
85 [label="tenure <= -0.326\ngini = 0.153\nsamples = 156\nvalue = [143, 13]\nclass = ["] ;
83 -> 85 ;
86 [label="gini = 0.147\nsamples = 75\nvalue = [69, 6]\nclass = ["] ;
85 -> 86 ;
87 [label="gini = 0.158\nsamples = 81\nvalue = [74, 7]\nclass = ["] ;
85 -> 87 ;
88 [label="balance <= 0.872\ngini = 0.183\nsamples = 422\nvalue = [379, 43]\nclass = ["] ;
82 -> 88 ;
89 [label="balance <= 0.869\ngini = 0.192\nsamples = 167\nvalue = [149, 18]\nclass = ["] ;
88 -> 89 ;
90 [label="gini = 0.193\nsamples = 83\nvalue = [74, 9]\nclass = ["] ;
89 -> 90 ;
91 [label="gini = 0.191\nsamples = 84\nvalue = [75, 9]\nclass = ["] ;
89 -> 91 ;
92 [label="balance <= 0.878\ngini = 0.177\nsamples = 255\nvalue = [230, 25]\nclass = ["] ;
88 -> 92 ;
93 [label="tenure <= 0.055\ngini = 0.167\nsamples = 141\nvalue = [128, 13]\nclass = ["] ;
92 -> 93 ;
94 [label="gini = 0.182\nsamples = 69\nvalue = [62, 7]\nclass = ["] ;
93 -> 94 ;
95 [label="gini = 0.153\nsamples = 72\nvalue = [66, 6]\nclass = ["] ;
93 -> 95 ;
96 [label="balance <= 0.88\ngini = 0.188\nsamples = 114\nvalue = [102, 12]\nclass = ["] ;
92 -> 96 ;
97 [label="gini = 0.211\nsamples = 50\nvalue = [44, 6]\nclass = ["] ;
96 -> 97 ;
98 [label="gini = 0.17\nsamples = 64\nvalue = [58, 6]\nclass = ["] ;
96 -> 98 ;
99 [label="balance <= 2.592\ngini = 0.356\nsamples = 121\nvalue = [28, 93]\nclass = 0"] ;
1 -> 99 ;
100 [label="balance <= 2.446\ngini = 0.417\nsamples = 91\nvalue = [27, 64]\nclass = 0"] ;
99 -> 100 ;
101 [label="balance <= 2.435\ngini = 0.496\nsamples = 11\nvalue = [6, 5]\nclass = ["] ;
100 -> 101 ;
102 [label="gini = 0.444\nsamples = 3\nvalue = [1, 2]\nclass = 0"] ;
101 -> 102 ;
103 [label="balance <= 2.437\ngini = 0.469\nsamples = 8\nvalue = [5, 3]\nclass = ["] ;
101 -> 103 ;
104 [label="gini = 0.0\nsamples = 1\nvalue = [1, 0]\nclass = ["] ;
103 -> 104 ;
105 [label="tenure <= -0.708\ngini = 0.49\nsamples = 7\nvalue = [4, 3]\nclass = ["] ;
103 -> 105 ;
106 [label="balance <= 2.44\ngini = 0.5\nsamples = 4\nvalue = [2, 2]\nclass = ["] ;
105 -> 106 ;
107 [label="gini = 0.5\nsamples = 2\nvalue = [1, 1]\nclass = ["] ;
106 -> 107 ;
108 [label="gini = 0.5\nsamples = 2\nvalue = [1, 1]\nclass = ["] ;
106 -> 108 ;
109 [label="gini = 0.444\nsamples = 3\nvalue = [2, 1]\nclass = ["] ;
105 -> 109 ;
110 [label="balance <= 2.589\ngini = 0.387\nsamples = 80\nvalue = [21, 59]\nclass = 0"] ;
100 -> 110 ;
111 [label="tenure <= -0.136\ngini = 0.372\nsamples = 77\nvalue = [19, 58]\nclass = 0"] ;
110 -> 111 ;
112 [label="tenure <= -0.231\ngini = 0.43\nsamples = 48\nvalue = [15, 33]\nclass = 0"] ;
111 -> 112 ;
113 [label="tenure <= -0.327\ngini = 0.393\nsamples = 41\nvalue = [11, 30]\nclass = 0"] ;
112 -> 113 ;
114 [label="balance <= 2.451\ngini = 0.431\nsamples = 35\nvalue = [11, 24]\nclass = 0"] ;
113 -> 114 ;
115 [label="gini = 0.0\nsamples = 2\nvalue = [0, 2]\nclass = 0"] ;
114 -> 115 ;
116 [label="gini = 0.444\nsamples = 33\nvalue = [11, 22]\nclass = 0"] ;
114 -> 116 ;
117 [label="gini = 0.0\nsamples = 6\nvalue = [0, 6]\nclass = 0"] ;
113 -> 117 ;
118 [label="tenure <= -0.183\ngini = 0.49\nsamples = 7\nvalue = [4, 3]\nclass = ["] ;
112 -> 118 ;
119 [label="gini = 0.444\nsamples = 3\nvalue = [2, 1]\nclass = ["] ;
118 -> 119 ;
120 [label="gini = 0.5\nsamples = 4\nvalue = [2, 2]\nclass = ["] ;
118 -> 120 ;
121 [label="tenure <= 0.055\ngini = 0.238\nsamples = 29\nvalue = [4, 25]\nclass = 0"] ;
111 -> 121 ;
122 [label="gini = 0.0\nsamples = 13\nvalue = [0, 13]\nclass = 0"] ;
121 -> 122 ;
123 [label="tenure <= 0.246\ngini = 0.375\nsamples = 16\nvalue = [4, 12]\nclass = 0"] ;
121 -> 123 ;
124 [label="tenure <= 0.15\ngini = 0.298\nsamples = 11\nvalue = [2, 9]\nclass = 0"] ;
123 -> 124 ;
125 [label="gini = 0.278\nsamples = 6\nvalue = [1, 5]\nclass = 0"] ;
124 -> 125 ;
126 [label="gini = 0.32\nsamples = 5\nvalue = [1, 4]\nclass = 0"] ;
124 -> 126 ;
127 [label="gini = 0.48\nsamples = 5\nvalue = [2, 3]\nclass = 0"] ;
123 -> 127 ;
128 [label="gini = 0.444\nsamples = 3\nvalue = [2, 1]\nclass = ["] ;
110 -> 128 ;
129 [label="balance <= 2.595\ngini = 0.064\nsamples = 30\nvalue = [1, 29]\nclass = 0"] ;
99 -> 129 ;
130 [label="gini = 0.219\nsamples = 8\nvalue = [1, 7]\nclass = 0"] ;
129 -> 130 ;
131 [label="gini = 0.0\nsamples = 22\nvalue = [0, 22]\nclass = 0"] ;
129 -> 131 ;
132 [label="balance <= 1.738\ngini = 0.485\nsamples = 2415\nvalue = [1418, 997]\nclass = ["] ;
0 -> 132 [labeldistance=2.5, labelangle=-45, headlabel="False"] ;
133 [label="balance <= -0.768\ngini = 0.472\nsamples = 2282\nvalue = [1413, 869]\nclass = ["] ;
132 -> 133 ;
134 [label="balance <= -0.826\ngini = 0.499\nsamples = 1354\nvalue = [655, 699]\nclass = 0"] ;
133 -> 134 ;
135 [label="tenure <= 2.63\ngini = 0.495\nsamples = 888\nvalue = [488, 400]\nclass = ["] ;
134 -> 135 ;
136 [label="tenure <= 0.627\ngini = 0.498\nsamples = 836\nvalue = [442, 394]\nclass = ["] ;
135 -> 136 ;
137 [label="balance <= -0.95\ngini = 0.472\nsamples = 391\nvalue = [242, 149]\nclass = ["] ;
136 -> 137 ;
138 [label="tenure <= 0.341\ngini = 0.44\nsamples = 190\nvalue = [128, 62]\nclass = ["] ;
137 -> 138 ;
139 [label="gini = 0.401\nsamples = 72\nvalue = [52, 20]\nclass = ["] ;
138 -> 139 ;
140 [label="tenure <= 0.437\ngini = 0.458\nsamples = 118\nvalue = [76, 42]\nclass = ["] ;
138 -> 140 ;
141 [label="gini = 0.473\nsamples = 65\nvalue = [40, 25]\nclass = ["] ;
140 -> 141 ;
142 [label="gini = 0.436\nsamples = 53\nvalue = [36, 17]\nclass = ["] ;
140 -> 142 ;
143 [label="tenure <= 0.532\ngini = 0.491\nsamples = 201\nvalue = [114, 87]\nclass = ["] ;
137 -> 143 ;
144 [label="tenure <= 0.341\ngini = 0.494\nsamples = 151\nvalue = [84, 67]\nclass = ["] ;
143 -> 144 ;
145 [label="gini = 0.497\nsamples = 50\nvalue = [27, 23]\nclass = ["] ;
144 -> 145 ;
146 [label="gini = 0.492\nsamples = 101\nvalue = [57, 44]\nclass = ["] ;
144 -> 146 ;
147 [label="gini = 0.48\nsamples = 50\nvalue = [30, 20]\nclass = ["] ;
143 -> 147 ;
148 [label="tenure <= 1.772\ngini = 0.495\nsamples = 445\nvalue = [200, 245]\nclass = 0"] ;
136 -> 148 ;
149 [label="tenure <= 1.581\ngini = 0.486\nsamples = 341\nvalue = [142, 199]\nclass = 0"] ;
148 -> 149 ;
150 [label="balance <= -0.931\ngini = 0.492\nsamples = 310\nvalue = [136, 174]\nclass = 0"] ;
149 -> 150 ;
151 [label="gini = 0.497\nsamples = 216\nvalue = [100, 116]\nclass = 0"] ;
150 -> 151 ;
152 [label="gini = 0.473\nsamples = 94\nvalue = [36, 58]\nclass = 0"] ;
150 -> 152 ;
153 [label="tenure <= 1.676\ngini = 0.312\nsamples = 31\nvalue = [6, 25]\nclass = 0"] ;
149 -> 153 ;
154 [label="gini = 0.219\nsamples = 16\nvalue = [2, 14]\nclass = 0"] ;
153 -> 154 ;
155 [label="gini = 0.391\nsamples = 15\nvalue = [4, 11]\nclass = 0"] ;
153 -> 155 ;
156 [label="tenure <= 2.344\ngini = 0.493\nsamples = 104\nvalue = [58, 46]\nclass = ["] ;
148 -> 156 ;
157 [label="balance <= -0.909\ngini = 0.497\nsamples = 89\nvalue = [48, 41]\nclass = ["] ;
156 -> 157 ;
158 [label="gini = 0.493\nsamples = 41\nvalue = [23, 18]\nclass = ["] ;
157 -> 158 ;
159 [label="gini = 0.499\nsamples = 48\nvalue = [25, 23]\nclass = ["] ;
157 -> 159 ;
160 [label="tenure <= 2.439\ngini = 0.444\nsamples = 15\nvalue = [10, 5]\nclass = ["] ;
156 -> 160 ;
161 [label="gini = 0.375\nsamples = 4\nvalue = [3, 1]\nclass = ["] ;
160 -> 161 ;
162 [label="gini = 0.463\nsamples = 11\nvalue = [7, 4]\nclass = ["] ;
160 -> 162 ;
163 [label="balance <= -0.875\ngini = 0.204\nsamples = 52\nvalue = [46, 6]\nclass = ["] ;
135 -> 163 ;
164 [label="balance <= -0.884\ngini = 0.305\nsamples = 32\nvalue = [26, 6]\nclass = ["] ;
163 -> 164 ;
165 [label="balance <= -0.886\ngini = 0.375\nsamples = 16\nvalue = [12, 4]\nclass = ["] ;
164 -> 165 ;
166 [label="gini = 0.375\nsamples = 12\nvalue = [9, 3]\nclass = ["] ;
165 -> 166 ;
167 [label="gini = 0.375\nsamples = 4\nvalue = [3, 1]\nclass = ["] ;
165 -> 167 ;
168 [label="balance <= -0.878\ngini = 0.219\nsamples = 16\nvalue = [14, 2]\nclass = ["] ;
164 -> 168 ;
169 [label="gini = 0.0\nsamples = 9\nvalue = [9, 0]\nclass = ["] ;
168 -> 169 ;
170 [label="gini = 0.408\nsamples = 7\nvalue = [5, 2]\nclass = ["] ;
168 -> 170 ;
171 [label="gini = 0.0\nsamples = 20\nvalue = [20, 0]\nclass = ["] ;
163 -> 171 ;
172 [label="balance <= -0.776\ngini = 0.46\nsamples = 466\nvalue = [167, 299]\nclass = 0"] ;
134 -> 172 ;
173 [label="balance <= -0.815\ngini = 0.453\nsamples = 447\nvalue = [155, 292]\nclass = 0"] ;
172 -> 173 ;
174 [label="balance <= -0.823\ngini = 0.487\nsamples = 184\nvalue = [77, 107]\nclass = 0"] ;
173 -> 174 ;
175 [label="gini = 0.475\nsamples = 49\nvalue = [19, 30]\nclass = 0"] ;
174 -> 175 ;
176 [label="balance <= -0.82\ngini = 0.49\nsamples = 135\nvalue = [58, 77]\nclass = 0"] ;
174 -> 176 ;
177 [label="gini = 0.498\nsamples = 51\nvalue = [24, 27]\nclass = 0"] ;
176 -> 177 ;
178 [label="balance <= -0.817\ngini = 0.482\nsamples = 84\nvalue = [34, 50]\nclass = 0"] ;
176 -> 178 ;
179 [label="gini = 0.48\nsamples = 40\nvalue = [16, 24]\nclass = 0"] ;
178 -> 179 ;
180 [label="gini = 0.483\nsamples = 44\nvalue = [18, 26]\nclass = 0"] ;
178 -> 180 ;
181 [label="balance <= -0.793\ngini = 0.417\nsamples = 263\nvalue = [78, 185]\nclass = 0"] ;
173 -> 181 ;
182 [label="tenure <= 1.104\ngini = 0.387\nsamples = 183\nvalue = [48, 135]\nclass = 0"] ;
181 -> 182 ;
183 [label="balance <= -0.812\ngini = 0.452\nsamples = 58\nvalue = [20, 38]\nclass = 0"] ;
182 -> 183 ;
184 [label="gini = 0.43\nsamples = 32\nvalue = [10, 22]\nclass = 0"] ;
183 -> 184 ;
185 [label="gini = 0.473\nsamples = 26\nvalue = [10, 16]\nclass = 0"] ;
183 -> 185 ;
186 [label="tenure <= 1.2\ngini = 0.348\nsamples = 125\nvalue = [28, 97]\nclass = 0"] ;
182 -> 186 ;
187 [label="gini = 0.211\nsamples = 25\nvalue = [3, 22]\nclass = 0"] ;
186 -> 187 ;
188 [label="gini = 0.375\nsamples = 100\nvalue = [25, 75]\nclass = 0"] ;
186 -> 188 ;
189 [label="balance <= -0.784\ngini = 0.469\nsamples = 80\nvalue = [30, 50]\nclass = 0"] ;
181 -> 189 ;
190 [label="tenure <= 1.772\ngini = 0.495\nsamples = 42\nvalue = [19, 23]\nclass = 0"] ;
189 -> 190 ;
191 [label="gini = 0.48\nsamples = 15\nvalue = [6, 9]\nclass = 0"] ;
190 -> 191 ;
192 [label="gini = 0.499\nsamples = 27\nvalue = [13, 14]\nclass = 0"] ;
190 -> 192 ;
193 [label="balance <= -0.782\ngini = 0.411\nsamples = 38\nvalue = [11, 27]\nclass = 0"] ;
189 -> 193 ;
194 [label="gini = 0.32\nsamples = 15\nvalue = [3, 12]\nclass = 0"] ;
193 -> 194 ;
195 [label="gini = 0.454\nsamples = 23\nvalue = [8, 15]\nclass = 0"] ;
193 -> 195 ;
196 [label="tenure <= 2.439\ngini = 0.465\nsamples = 19\nvalue = [12, 7]\nclass = ["] ;
172 -> 196 ;
197 [label="tenure <= 2.344\ngini = 0.43\nsamples = 16\nvalue = [11, 5]\nclass = ["] ;
196 -> 197 ;
198 [label="gini = 0.408\nsamples = 7\nvalue = [5, 2]\nclass = ["] ;
197 -> 198 ;
199 [label="gini = 0.444\nsamples = 9\nvalue = [6, 3]\nclass = ["] ;
197 -> 199 ;
200 [label="gini = 0.444\nsamples = 3\nvalue = [1, 2]\nclass = 0"] ;
196 -> 200 ;
201 [label="balance <= 0.894\ngini = 0.299\nsamples = 928\nvalue = [758, 170]\nclass = ["] ;
133 -> 201 ;
202 [label="balance <= -0.759\ngini = 0.261\nsamples = 680\nvalue = [575, 105]\nclass = ["] ;
201 -> 202 ;
203 [label="tenure <= 2.725\ngini = 0.432\nsamples = 19\nvalue = [13, 6]\nclass = ["] ;
202 -> 203 ;
204 [label="tenure <= 2.63\ngini = 0.375\nsamples = 16\nvalue = [12, 4]\nclass = ["] ;
203 -> 204 ;
205 [label="gini = 0.444\nsamples = 12\nvalue = [8, 4]\nclass = ["] ;
204 -> 205 ;
206 [label="gini = 0.0\nsamples = 4\nvalue = [4, 0]\nclass = ["] ;
204 -> 206 ;
207 [label="gini = 0.444\nsamples = 3\nvalue = [1, 2]\nclass = 0"] ;
203 -> 207 ;
208 [label="tenure <= 2.439\ngini = 0.255\nsamples = 661\nvalue = [562, 99]\nclass = ["] ;
202 -> 208 ;
209 [label="tenure <= 0.818\ngini = 0.269\nsamples = 582\nvalue = [489, 93]\nclass = ["] ;
208 -> 209 ;
210 [label="balance <= 0.886\ngini = 0.226\nsamples = 377\nvalue = [328, 49]\nclass = ["] ;
209 -> 210 ;
211 [label="tenure <= 0.627\ngini = 0.205\nsamples = 259\nvalue = [229, 30]\nclass = ["] ;
210 -> 211 ;
212 [label="gini = 0.225\nsamples = 194\nvalue = [169, 25]\nclass = ["] ;
211 -> 212 ;
213 [label="gini = 0.142\nsamples = 65\nvalue = [60, 5]\nclass = ["] ;
211 -> 213 ;
214 [label="balance <= 0.889\ngini = 0.27\nsamples = 118\nvalue = [99, 19]\nclass = ["] ;
210 -> 214 ;
215 [label="gini = 0.33\nsamples = 48\nvalue = [38, 10]\nclass = ["] ;
214 -> 215 ;
216 [label="gini = 0.224\nsamples = 70\nvalue = [61, 9]\nclass = ["] ;
214 -> 216 ;
217 [label="tenure <= 2.248\ngini = 0.337\nsamples = 205\nvalue = [161, 44]\nclass = ["] ;
209 -> 217 ;
218 [label="balance <= 0.806\ngini = 0.33\nsamples = 192\nvalue = [152, 40]\nclass = ["] ;
217 -> 218 ;
219 [label="gini = 0.343\nsamples = 159\nvalue = [124, 35]\nclass = ["] ;
218 -> 219 ;
220 [label="gini = 0.257\nsamples = 33\nvalue = [28, 5]\nclass = ["] ;
218 -> 220 ;
221 [label="tenure <= 2.343\ngini = 0.426\nsamples = 13\nvalue = [9, 4]\nclass = ["] ;
217 -> 221 ;
222 [label="gini = 0.444\nsamples = 6\nvalue = [4, 2]\nclass = ["] ;
221 -> 222 ;
223 [label="gini = 0.408\nsamples = 7\nvalue = [5, 2]\nclass = ["] ;
221 -> 223 ;
224 [label="tenure <= 4.155\ngini = 0.14\nsamples = 79\nvalue = [73, 6]\nclass = ["] ;
208 -> 224 ;
225 [label="balance <= -0.748\ngini = 0.121\nsamples = 77\nvalue = [72, 5]\nclass = ["] ;
224 -> 225 ;
226 [label="tenure <= 3.011\ngini = 0.291\nsamples = 17\nvalue = [14, 3]\nclass = ["] ;
225 -> 226 ;
227 [label="gini = 0.198\nsamples = 9\nvalue = [8, 1]\nclass = ["] ;
226 -> 227 ;
228 [label="gini = 0.375\nsamples = 8\nvalue = [6, 2]\nclass = ["] ;
226 -> 228 ;
229 [label="tenure <= 3.106\ngini = 0.064\nsamples = 60\nvalue = [58, 2]\nclass = ["] ;
225 -> 229 ;
230 [label="gini = 0.111\nsamples = 34\nvalue = [32, 2]\nclass = ["] ;
229 -> 230 ;
231 [label="gini = 0.0\nsamples = 26\nvalue = [26, 0]\nclass = ["] ;
229 -> 231 ;
232 [label="tenure <= 4.489\ngini = 0.5\nsamples = 2\nvalue = [1, 1]\nclass = ["] ;
224 -> 232 ;
233 [label="gini = 0.0\nsamples = 1\nvalue = [0, 1]\nclass = 0"] ;
232 -> 233 ;
234 [label="gini = 0.0\nsamples = 1\nvalue = [1, 0]\nclass = ["] ;
232 -> 234 ;
235 [label="balance <= 0.944\ngini = 0.387\nsamples = 248\nvalue = [183, 65]\nclass = ["] ;
201 -> 235 ;
236 [label="balance <= 0.897\ngini = 0.427\nsamples = 201\nvalue = [139, 62]\nclass = ["] ;
235 -> 236 ;
237 [label="gini = 0.48\nsamples = 25\nvalue = [15, 10]\nclass = ["] ;
236 -> 237 ;
238 [label="balance <= 0.9\ngini = 0.416\nsamples = 176\nvalue = [124, 52]\nclass = ["] ;
236 -> 238 ;
239 [label="gini = 0.285\nsamples = 29\nvalue = [24, 5]\nclass = ["] ;
238 -> 239 ;
240 [label="tenure <= 2.248\ngini = 0.435\nsamples = 147\nvalue = [100, 47]\nclass = ["] ;
238 -> 240 ;
241 [label="balance <= 0.936\ngini = 0.429\nsamples = 138\nvalue = [95, 43]\nclass = ["] ;
240 -> 241 ;
242 [label="gini = 0.441\nsamples = 131\nvalue = [88, 43]\nclass = ["] ;
241 -> 242 ;
243 [label="gini = 0.0\nsamples = 7\nvalue = [7, 0]\nclass = ["] ;
241 -> 243 ;
244 [label="balance <= 0.941\ngini = 0.494\nsamples = 9\nvalue = [5, 4]\nclass = ["] ;
240 -> 244 ;
245 [label="gini = 0.5\nsamples = 6\nvalue = [3, 3]\nclass = ["] ;
244 -> 245 ;
246 [label="gini = 0.444\nsamples = 3\nvalue = [2, 1]\nclass = ["] ;
244 -> 246 ;
247 [label="balance <= 0.972\ngini = 0.12\nsamples = 47\nvalue = [44, 3]\nclass = ["] ;
235 -> 247 ;
248 [label="balance <= 0.966\ngini = 0.161\nsamples = 34\nvalue = [31, 3]\nclass = ["] ;
247 -> 248 ;
249 [label="balance <= 0.949\ngini = 0.074\nsamples = 26\nvalue = [25, 1]\nclass = ["] ;
248 -> 249 ;
250 [label="tenure <= 2.534\ngini = 0.278\nsamples = 6\nvalue = [5, 1]\nclass = ["] ;
249 -> 250 ;
251 [label="gini = 0.0\nsamples = 3\nvalue = [3, 0]\nclass = ["] ;
250 -> 251 ;
252 [label="gini = 0.444\nsamples = 3\nvalue = [2, 1]\nclass = ["] ;
250 -> 252 ;
253 [label="gini = 0.0\nsamples = 20\nvalue = [20, 0]\nclass = ["] ;
249 -> 253 ;
254 [label="balance <= 0.969\ngini = 0.375\nsamples = 8\nvalue = [6, 2]\nclass = ["] ;
248 -> 254 ;
255 [label="gini = 0.444\nsamples = 3\nvalue = [2, 1]\nclass = ["] ;
254 -> 255 ;
256 [label="gini = 0.32\nsamples = 5\nvalue = [4, 1]\nclass = ["] ;
254 -> 256 ;
257 [label="gini = 0.0\nsamples = 13\nvalue = [13, 0]\nclass = ["] ;
247 -> 257 ;
258 [label="tenure <= 2.582\ngini = 0.072\nsamples = 133\nvalue = [5, 128]\nclass = 0"] ;
132 -> 258 ;
259 [label="balance <= 2.498\ngini = 0.016\nsamples = 126\nvalue = [1, 125]\nclass = 0"] ;
258 -> 259 ;
260 [label="tenure <= 1.104\ngini = 0.074\nsamples = 26\nvalue = [1, 25]\nclass = 0"] ;
259 -> 260 ;
261 [label="gini = 0.0\nsamples = 19\nvalue = [0, 19]\nclass = 0"] ;
260 -> 261 ;
262 [label="gini = 0.245\nsamples = 7\nvalue = [1, 6]\nclass = 0"] ;
260 -> 262 ;
263 [label="gini = 0.0\nsamples = 100\nvalue = [0, 100]\nclass = 0"] ;
259 -> 263 ;
264 [label="balance <= 2.668\ngini = 0.49\nsamples = 7\nvalue = [4, 3]\nclass = ["] ;
258 -> 264 ;
265 [label="gini = 0.0\nsamples = 4\nvalue = [4, 0]\nclass = ["] ;
264 -> 265 ;
266 [label="gini = 0.0\nsamples = 3\nvalue = [0, 3]\nclass = 0"] ;
264 -> 266 ;
}